34 128
34 -0.105340 -0.197233 0.055241 0.002117 0.046084 -0.103898 0.111095 0.028576 -0.097776 0.029357 -0.055220 0.121666 0.085606 -0.216293 -0.055266 -0.121216 -0.057303 0.007577 -0.034007 0.001507 0.199873 0.069845 0.243364 0.009137 -0.117003 -0.061504 -0.072277 0.017041 0.054335 0.152463 -0.000347 0.153987 -0.160878 0.139619 -0.168185 -0.127947 0.141951 0.014165 -0.075213 -0.056386 -0.272741 0.078133 0.145434 0.093952 -0.107931 0.121900 -0.011261 -0.134484 -0.102819 -0.012033 -0.062550 0.194635 0.082467 0.038890 -0.253505 -0.109922 -0.102661 -0.022203 -0.082074 0.126897 0.143339 -0.085785 -0.158164 0.120294 0.072332 -0.141423 0.047293 -0.006857 -0.017431 -0.010638 0.081964 0.033560 0.086036 0.012159 0.002468 -0.002010 0.134093 0.094345 0.044629 0.105721 -0.039509 -0.216037 -0.072421 -0.253461 -0.057791 0.317067 -0.132232 -0.032353 -0.108848 -0.023442 0.129070 0.169530 0.051330 -0.127139 -0.078909 0.184629 -0.118944 -0.060715 0.106105 -0.051809 -0.296844 -0.033121 -0.126325 -0.029406 0.057352 -0.018992 0.216329 0.141167 0.032550 -0.093969 -0.021052 -0.034875 -0.009039 -0.033471 -0.016949 -0.003497 -0.093417 0.162981 -0.196420 -0.033986 -0.079070 -0.128127 0.032793 -0.144555 -0.005793 0.114252 -0.029321 0.052389
1 -0.061712 -0.211193 0.019869 0.024822 0.035862 -0.161914 0.066889 0.182213 0.042091 0.000520 0.011992 0.191565 0.059450 -0.221910 0.086722 -0.161172 -0.081904 -0.078119 0.001836 -0.064328 0.231765 0.011152 0.177325 0.021234 0.046984 -0.070823 -0.064407 -0.006409 0.090577 0.161501 0.047059 0.051113 -0.197880 0.143986 -0.107741 -0.157247 0.164161 0.035454 -0.098666 0.015485 -0.168153 0.020926 0.196242 0.156597 -0.192980 0.135694 0.068970 -0.123842 -0.012200 0.058907 -0.114277 0.098223 0.101901 0.077649 -0.263236 -0.151585 -0.047526 0.053765 -0.038149 0.028402 0.197997 -0.124364 -0.037257 0.124965 -0.015890 0.031063 0.025744 -0.011928 0.030350 -0.115539 -0.022089 0.034827 0.003186 -0.003856 0.206002 0.100618 0.179691 0.016186 0.043687 -0.077760 -0.088007 -0.080423 -0.074117 -0.092820 -0.118566 0.127605 0.081273 -0.083946 0.035631 -0.008294 0.158279 0.066467 0.042092 -0.075149 -0.218979 0.145327 -0.087826 -0.236140 0.149843 0.134106 -0.227101 -0.059402 -0.120260 0.016752 -0.094330 -0.080614 0.130088 0.105774 0.021833 -0.136549 -0.046394 0.100779 0.013553 -0.010635 -0.118710 0.065848 -0.065922 0.152353 -0.205681 -0.107643 -0.027322 -0.077353 0.162714 -0.285957 -0.180875 -0.006629 0.068197 0.105171
33 -0.104595 -0.195371 0.056644 0.000848 0.044426 -0.101672 0.110848 0.020641 -0.105399 0.032313 -0.055513 0.117863 0.090496 -0.223232 -0.061314 -0.117537 -0.062408 0.016048 -0.043443 0.003344 0.203346 0.074826 0.250974 0.010047 -0.132049 -0.057871 -0.078232 0.019938 0.053899 0.153175 -0.009092 0.166131 -0.156673 0.139125 -0.178229 -0.129716 0.134220 0.009121 -0.077139 -0.063411 -0.280434 0.082662 0.139286 0.083216 -0.100763 0.126324 -0.021998 -0.134390 -0.114567 -0.019989 -0.060806 0.206708 0.080810 0.032175 -0.255447 -0.102815 -0.108530 -0.028396 -0.083684 0.137947 0.146047 -0.088241 -0.167149 0.119881 0.082295 -0.157386 0.054555 -0.004551 -0.025479 -0.000091 0.097438 0.031784 0.100067 0.012675 -0.015155 -0.008835 0.136803 0.096369 0.046749 0.119043 -0.029253 -0.229012 -0.077192 -0.270305 -0.055850 0.335072 -0.152393 -0.031072 -0.118571 -0.026863 0.134398 0.184207 0.055190 -0.133977 -0.068314 0.191831 -0.123680 -0.057496 0.110286 -0.065022 -0.308846 -0.038898 -0.129001 -0.027675 0.073799 -0.019331 0.226323 0.150321 0.038997 -0.095960 -0.024438 -0.045593 -0.010004 -0.042358 -0.008645 -0.004595 -0.098920 0.162869 -0.203521 -0.036295 -0.082830 -0.134190 0.023202 -0.138817 0.012610 0.123970 -0.042160 0.045654
3 -0.083102 -0.190321 0.040128 0.010516 0.040257 -0.126583 0.081946 0.098833 -0.038667 0.014386 -0.017923 0.147306 0.065518 -0.213398 0.012208 -0.137897 -0.066358 -0.031288 -0.013173 -0.030385 0.198502 0.046140 0.196893 0.015097 -0.036271 -0.056415 -0.064463 0.011528 0.076539 0.154631 0.019930 0.094148 -0.179299 0.145145 -0.130249 -0.138757 0.150706 0.025768 -0.080484 -0.011431 -0.206346 0.042262 0.161836 0.123927 -0.143884 0.121964 0.025470 -0.125995 -0.066592 0.018247 -0.080143 0.129478 0.084377 0.057875 -0.249674 -0.127347 -0.073635 0.017647 -0.062731 0.075531 0.155862 -0.097053 -0.094505 0.118732 0.028937 -0.055629 0.040164 -0.006959 0.008276 -0.059254 0.029911 0.037853 0.043324 0.004882 0.099301 0.047327 0.154280 0.053167 0.046547 0.017869 -0.057198 -0.144544 -0.074261 -0.172170 -0.081755 0.223760 -0.022796 -0.054481 -0.037281 -0.019423 0.134498 0.115919 0.038464 -0.103770 -0.147908 0.158037 -0.106127 -0.135486 0.121810 0.037283 -0.255660 -0.048288 -0.119360 -0.005646 -0.013688 -0.043497 0.163275 0.117231 0.026023 -0.116002 -0.031756 0.029570 0.004683 -0.019302 -0.063419 0.031041 -0.081059 0.152297 -0.185423 -0.066213 -0.052819 -0.106537 0.086580 -0.203062 -0.083657 0.052549 0.018176 0.074040
2 -0.065002 -0.193810 0.026922 0.014441 0.033250 -0.138745 0.071364 0.134421 -0.007740 0.009700 -0.005017 0.170259 0.068588 -0.214869 0.044047 -0.148653 -0.079091 -0.044006 -0.006363 -0.040144 0.212453 0.031843 0.190188 0.015273 -0.004929 -0.056415 -0.065202 0.003130 0.082327 0.156938 0.034948 0.073948 -0.188706 0.145859 -0.119318 -0.140019 0.154117 0.023714 -0.085764 0.001498 -0.183069 0.035414 0.171916 0.134433 -0.161254 0.126530 0.036888 -0.122636 -0.040912 0.028095 -0.095554 0.105330 0.096549 0.067755 -0.252530 -0.134690 -0.056954 0.033280 -0.054446 0.052275 0.170425 -0.104450 -0.066076 0.111338 0.010675 -0.010841 0.031064 -0.013105 0.013611 -0.080011 0.004176 0.036152 0.033575 -0.003496 0.144919 0.074493 0.163825 0.037336 0.045077 -0.021487 -0.069864 -0.121649 -0.078498 -0.135776 -0.095947 0.186171 0.022485 -0.070379 -0.001527 -0.018453 0.144313 0.095093 0.040329 -0.097970 -0.184362 0.149119 -0.098707 -0.180507 0.127888 0.083302 -0.238537 -0.059169 -0.114692 0.002276 -0.050176 -0.067155 0.150342 0.116864 0.018886 -0.125241 -0.044977 0.059948 0.010968 -0.019846 -0.091132 0.046057 -0.076177 0.154570 -0.200956 -0.085147 -0.042303 -0.096880 0.120471 -0.244691 -0.121497 0.029363 0.042892 0.086557
4 -0.066642 -0.194838 0.024833 0.020319 0.035855 -0.143091 0.069306 0.145905 0.007715 0.005760 0.001695 0.173745 0.065643 -0.215015 0.053294 -0.148302 -0.077908 -0.057081 -0.005237 -0.044058 0.217753 0.025017 0.185032 0.015284 0.009986 -0.061315 -0.068201 -0.001442 0.082323 0.155845 0.034981 0.068515 -0.186041 0.138377 -0.116424 -0.146503 0.159800 0.031733 -0.092497 0.004550 -0.184117 0.030085 0.179950 0.141444 -0.164820 0.128008 0.048345 -0.124553 -0.037483 0.034466 -0.096622 0.108057 0.095955 0.066958 -0.251430 -0.137545 -0.056711 0.032533 -0.045243 0.043714 0.182165 -0.110715 -0.057828 0.118725 0.009404 -0.004802 0.026264 -0.008436 0.018326 -0.089834 0.001835 0.038221 0.024483 -0.004842 0.159745 0.075390 0.166105 0.037372 0.039025 -0.028070 -0.070380 -0.112313 -0.073584 -0.124474 -0.100464 0.169041 0.038060 -0.073159 0.003756 -0.012091 0.143782 0.085782 0.038762 -0.087300 -0.185305 0.149020 -0.093871 -0.191783 0.133169 0.088501 -0.237343 -0.055662 -0.115134 0.011091 -0.061762 -0.065108 0.139478 0.112325 0.021866 -0.127374 -0.036223 0.068273 0.009121 -0.016353 -0.092632 0.052875 -0.073706 0.150853 -0.196599 -0.086459 -0.035287 -0.087806 0.125973 -0.250657 -0.137811 0.021581 0.049086 0.091091
32 -0.098030 -0.201242 0.042989 0.004546 0.038239 -0.107816 0.110177 0.045229 -0.080543 0.028082 -0.046696 0.129663 0.082037 -0.215820 -0.037953 -0.120576 -0.060964 -0.007028 -0.039962 -0.006779 0.207197 0.064322 0.234896 0.014128 -0.099813 -0.065133 -0.079147 0.016331 0.058376 0.150964 0.000891 0.143014 -0.158173 0.137676 -0.171163 -0.136173 0.145152 0.018729 -0.083796 -0.058927 -0.268462 0.073954 0.147081 0.097047 -0.122229 0.128597 0.000979 -0.127301 -0.093472 -0.008868 -0.070208 0.194076 0.083266 0.041178 -0.258168 -0.114665 -0.098447 -0.018851 -0.077042 0.119864 0.154184 -0.091912 -0.144785 0.128580 0.059497 -0.126446 0.043457 0.002096 -0.018403 -0.029414 0.070393 0.037279 0.079453 0.006883 0.022194 0.010628 0.139701 0.083172 0.043684 0.085500 -0.043529 -0.199981 -0.068553 -0.230951 -0.066725 0.296861 -0.110816 -0.035298 -0.091801 -0.026111 0.136412 0.161447 0.055844 -0.120898 -0.086567 0.178897 -0.110007 -0.085202 0.108696 -0.038391 -0.286252 -0.039847 -0.130594 -0.025052 0.048907 -0.020355 0.208903 0.134559 0.033249 -0.093641 -0.023059 -0.021604 -0.004857 -0.030926 -0.023124 0.006886 -0.089945 0.157159 -0.188116 -0.047076 -0.074569 -0.121287 0.044604 -0.155206 -0.015940 0.095937 -0.025928 0.059436
24 -0.099669 -0.198169 0.052373 0.004958 0.038248 -0.099812 0.118992 0.024706 -0.096241 0.033573 -0.054053 0.117658 0.090654 -0.224219 -0.058462 -0.120392 -0.061998 0.003987 -0.046726 -0.002871 0.209931 0.072248 0.253382 0.021401 -0.119744 -0.064473 -0.083012 0.011978 0.047591 0.155709 -0.010309 0.163008 -0.161413 0.129453 -0.180246 -0.135559 0.144648 0.008912 -0.085187 -0.076704 -0.288700 0.088880 0.141642 0.089858 -0.108141 0.134303 -0.012191 -0.126962 -0.105769 -0.017487 -0.058202 0.218864 0.077488 0.037276 -0.253667 -0.104458 -0.105036 -0.032650 -0.082998 0.137753 0.148767 -0.087838 -0.161342 0.127543 0.073581 -0.158233 0.048903 0.005842 -0.030280 -0.010359 0.094002 0.036546 0.088385 0.011683 -0.006719 -0.010351 0.130476 0.089710 0.042413 0.118055 -0.030516 -0.216679 -0.072069 -0.255308 -0.062281 0.321388 -0.152417 -0.023369 -0.116316 -0.023881 0.133031 0.178279 0.060896 -0.125010 -0.063689 0.192268 -0.109148 -0.060824 0.105813 -0.065299 -0.304258 -0.031053 -0.128447 -0.029053 0.068918 -0.013240 0.223245 0.144903 0.041499 -0.086203 -0.015489 -0.041291 -0.012012 -0.040307 -0.015248 -0.005193 -0.097938 0.159868 -0.194623 -0.032041 -0.083935 -0.130012 0.030467 -0.146563 0.010093 0.124207 -0.037742 0.055863
14 -0.079695 -0.198222 0.038588 0.009388 0.039835 -0.128117 0.080081 0.105390 -0.030566 0.016350 -0.020987 0.158183 0.069764 -0.215292 0.019732 -0.138674 -0.070631 -0.033457 -0.013845 -0.033227 0.212777 0.045289 0.202616 0.016937 -0.034063 -0.056618 -0.065209 0.009992 0.069890 0.157612 0.024673 0.097389 -0.179497 0.144019 -0.128435 -0.141143 0.150718 0.023545 -0.086824 -0.014590 -0.212567 0.045520 0.167021 0.126851 -0.147101 0.127991 0.028039 -0.122446 -0.058746 0.022628 -0.088338 0.133559 0.090181 0.059860 -0.250692 -0.130517 -0.074720 0.019406 -0.062965 0.068220 0.166210 -0.104726 -0.087557 0.114454 0.025188 -0.046358 0.037760 -0.011373 0.006299 -0.065578 0.023796 0.039112 0.042111 0.003902 0.111985 0.054248 0.157752 0.052017 0.042156 0.009616 -0.061881 -0.144371 -0.071891 -0.163161 -0.091252 0.221759 -0.019057 -0.060624 -0.029594 -0.018446 0.139672 0.112407 0.043886 -0.103035 -0.154737 0.161800 -0.104298 -0.146072 0.126707 0.045768 -0.257503 -0.050699 -0.119784 -0.001393 -0.024266 -0.048973 0.169569 0.124482 0.021464 -0.118383 -0.038812 0.031781 0.001655 -0.020911 -0.065719 0.032955 -0.084196 0.154566 -0.198029 -0.070316 -0.050987 -0.106328 0.096689 -0.219699 -0.089868 0.048431 0.019160 0.078034
7 -0.037621 -0.227803 -0.007483 0.043640 0.022568 -0.176247 0.070913 0.241752 0.100072 -0.007904 0.034173 0.230329 0.052989 -0.240276 0.144947 -0.175577 -0.098468 -0.115734 -0.007127 -0.089517 0.263219 -0.014775 0.178026 0.031652 0.111579 -0.095610 -0.082283 -0.035312 0.092426 0.178882 0.073761 0.026574 -0.218428 0.136981 -0.103134 -0.177823 0.185256 0.042082 -0.133495 0.027142 -0.163824 0.020103 0.226551 0.182021 -0.236006 0.162460 0.112874 -0.125968 0.022189 0.086558 -0.134106 0.094201 0.116334 0.085568 -0.274872 -0.175811 -0.036393 0.065200 -0.011119 0.001092 0.234914 -0.139700 0.005153 0.141913 -0.038488 0.080844 0.018792 -0.006318 0.046715 -0.163496 -0.050095 0.042487 -0.033055 -0.006910 0.287319 0.139693 0.193684 -0.003661 0.038125 -0.136479 -0.106248 -0.024585 -0.072715 -0.030387 -0.147370 0.066277 0.145144 -0.098744 0.073839 0.000674 0.182724 0.038083 0.053055 -0.047609 -0.266690 0.147560 -0.063468 -0.308823 0.168086 0.194326 -0.208577 -0.071005 -0.132377 0.029536 -0.151489 -0.114178 0.102763 0.097246 0.031784 -0.148812 -0.048525 0.159350 0.014215 -0.017231 -0.152294 0.096310 -0.063447 0.148234 -0.218367 -0.129804 -0.013355 -0.058221 0.229457 -0.349975 -0.249552 -0.044795 0.108719 0.132486
28 -0.094631 -0.185250 0.051984 0.002254 0.038312 -0.096860 0.099516 0.036926 -0.085999 0.026116 -0.043006 0.119776 0.078378 -0.200349 -0.042491 -0.114614 -0.057653 -0.001639 -0.030513 -0.003453 0.184482 0.062507 0.219708 0.011321 -0.100537 -0.051230 -0.073513 0.018610 0.057886 0.142392 -0.001570 0.139631 -0.148676 0.133303 -0.154343 -0.128813 0.135469 0.013939 -0.072372 -0.050351 -0.247916 0.062663 0.137599 0.093622 -0.111322 0.115238 -0.011513 -0.121675 -0.096793 -0.010392 -0.067084 0.176864 0.079200 0.034347 -0.232442 -0.103507 -0.095382 -0.019363 -0.080665 0.112821 0.139238 -0.087968 -0.134479 0.115945 0.062231 -0.121944 0.043045 0.000753 -0.021564 -0.024229 0.067941 0.036713 0.072695 0.003916 0.016528 0.007090 0.128485 0.081525 0.037632 0.088775 -0.036670 -0.196267 -0.066404 -0.220429 -0.059580 0.288088 -0.108967 -0.029650 -0.088754 -0.021571 0.125381 0.151205 0.045448 -0.118863 -0.076735 0.164975 -0.108097 -0.069816 0.102350 -0.040847 -0.274378 -0.032603 -0.121237 -0.023448 0.050036 -0.015155 0.198049 0.132609 0.032697 -0.092072 -0.021521 -0.023337 -0.009130 -0.030393 -0.018856 -0.001285 -0.089657 0.143292 -0.178323 -0.043650 -0.069781 -0.116422 0.035470 -0.138673 -0.012699 0.092144 -0.023367 0.052415
6 -0.045465 -0.215855 0.001411 0.042453 0.028467 -0.158110 0.074430 0.208291 0.073499 -0.002609 0.025875 0.209493 0.049083 -0.223180 0.115800 -0.160762 -0.091290 -0.099068 -0.006493 -0.075607 0.239702 -0.006067 0.174731 0.021056 0.082719 -0.089182 -0.074003 -0.032678 0.083486 0.171530 0.062197 0.034261 -0.197144 0.132713 -0.100896 -0.163347 0.174524 0.044006 -0.124135 0.016708 -0.167614 0.028515 0.211645 0.159165 -0.215500 0.148498 0.096935 -0.126199 0.008055 0.074757 -0.117583 0.101856 0.104606 0.071888 -0.252313 -0.165728 -0.043921 0.052928 -0.015341 0.005641 0.214316 -0.125964 -0.012945 0.131189 -0.022317 0.047883 0.018470 -0.010164 0.035947 -0.139574 -0.029058 0.036312 -0.018592 -0.001790 0.242694 0.115519 0.179791 0.010123 0.033753 -0.100347 -0.098474 -0.042792 -0.066010 -0.055087 -0.127591 0.089364 0.113810 -0.087436 0.049732 -0.003634 0.167513 0.051834 0.050435 -0.046891 -0.233582 0.143439 -0.067155 -0.267597 0.159366 0.156676 -0.204384 -0.065644 -0.123098 0.019136 -0.125032 -0.095466 0.111308 0.100069 0.027967 -0.138221 -0.042360 0.129467 0.010356 -0.017212 -0.126244 0.085865 -0.062265 0.145040 -0.205541 -0.115349 -0.018019 -0.067623 0.197723 -0.314646 -0.214309 -0.023431 0.089243 0.110776
8 -0.076697 -0.206998 0.034889 0.015909 0.035707 -0.139140 0.081786 0.125914 -0.014672 0.013953 -0.012489 0.170133 0.067529 -0.224017 0.038866 -0.151963 -0.076626 -0.043412 -0.006627 -0.035825 0.218638 0.037359 0.201023 0.012862 -0.015060 -0.056099 -0.067379 0.006089 0.079256 0.162544 0.027463 0.088214 -0.188953 0.151332 -0.129194 -0.149356 0.163957 0.027026 -0.088049 -0.001701 -0.205617 0.039836 0.173825 0.139086 -0.160968 0.134719 0.035185 -0.128861 -0.052404 0.028104 -0.099076 0.124332 0.100889 0.065831 -0.263758 -0.138639 -0.071596 0.023138 -0.060209 0.058735 0.175081 -0.112369 -0.078712 0.124882 0.020059 -0.034735 0.039134 -0.011669 0.012594 -0.080288 0.012967 0.036473 0.034412 -0.000199 0.134466 0.067030 0.162722 0.045483 0.044001 -0.008001 -0.065336 -0.139192 -0.079727 -0.156244 -0.100953 0.209602 0.008308 -0.065517 -0.015562 -0.019642 0.151512 0.104643 0.043283 -0.101393 -0.175703 0.156764 -0.105084 -0.177131 0.130672 0.065221 -0.255169 -0.059813 -0.129477 0.000782 -0.036194 -0.061466 0.161513 0.116529 0.022132 -0.128834 -0.042694 0.053065 0.010101 -0.018997 -0.085712 0.046442 -0.080283 0.156273 -0.201038 -0.079327 -0.047284 -0.103465 0.114829 -0.232428 -0.109865 0.032834 0.034103 0.082314
30 -0.096311 -0.200622 0.046874 0.005700 0.036150 -0.098723 0.116139 0.026511 -0.096663 0.034665 -0.057041 0.120834 0.084760 -0.219953 -0.056168 -0.121746 -0.059341 0.003824 -0.048622 0.000256 0.206685 0.068476 0.251080 0.011487 -0.115415 -0.066310 -0.076841 0.016710 0.047313 0.156035 -0.005388 0.154235 -0.157338 0.131715 -0.176701 -0.130257 0.138923 0.014919 -0.080457 -0.071048 -0.279728 0.083486 0.143579 0.092937 -0.108809 0.130656 -0.011143 -0.134074 -0.107140 -0.010356 -0.061903 0.210523 0.081555 0.031150 -0.250942 -0.107214 -0.109680 -0.024344 -0.077423 0.132160 0.148688 -0.091812 -0.154264 0.122529 0.078466 -0.148694 0.045843 -0.001623 -0.022245 -0.014435 0.089518 0.035236 0.089534 0.009393 0.000349 -0.007474 0.137352 0.093200 0.043368 0.112439 -0.040203 -0.215078 -0.076213 -0.250952 -0.060806 0.320629 -0.142842 -0.028966 -0.113464 -0.023420 0.133904 0.167642 0.056850 -0.120033 -0.067717 0.187241 -0.116261 -0.059364 0.110930 -0.060561 -0.293719 -0.033896 -0.127837 -0.033586 0.063513 -0.018152 0.219625 0.142837 0.032730 -0.090669 -0.023363 -0.042394 -0.015383 -0.042777 -0.007773 -0.004772 -0.101046 0.157730 -0.197782 -0.033262 -0.084968 -0.125395 0.031682 -0.143554 0.004945 0.119026 -0.030343 0.052363
9 -0.088830 -0.184444 0.039519 0.003054 0.036358 -0.103787 0.093683 0.057218 -0.060065 0.022401 -0.036116 0.133250 0.074879 -0.208080 -0.024502 -0.122093 -0.067787 -0.006027 -0.029082 -0.011733 0.191816 0.059508 0.219533 0.010377 -0.079924 -0.052516 -0.068550 0.007325 0.056585 0.145075 0.006131 0.128512 -0.163597 0.131218 -0.142927 -0.130148 0.140630 0.015440 -0.081293 -0.038208 -0.242271 0.059889 0.147979 0.103455 -0.118656 0.117926 0.005790 -0.126058 -0.083190 -0.005841 -0.073694 0.166154 0.079881 0.044278 -0.237153 -0.113873 -0.089539 -0.011002 -0.069587 0.096130 0.146885 -0.087272 -0.126633 0.113553 0.055235 -0.102328 0.044158 -0.004340 -0.013451 -0.031427 0.062193 0.034753 0.074247 0.004941 0.045167 0.015424 0.136637 0.076188 0.037335 0.068395 -0.040886 -0.182515 -0.075851 -0.216880 -0.072546 0.266238 -0.084353 -0.041834 -0.077798 -0.020400 0.132777 0.142831 0.052172 -0.107818 -0.107839 0.163560 -0.103154 -0.096460 0.108745 -0.008685 -0.273272 -0.045709 -0.122755 -0.018698 0.025984 -0.032779 0.185362 0.133731 0.024515 -0.104816 -0.023250 -0.005990 -0.000739 -0.033387 -0.037011 0.013120 -0.090399 0.162141 -0.196011 -0.042995 -0.067814 -0.115579 0.053896 -0.166951 -0.038820 0.089114 -0.009527 0.062341
20 -0.074963 -0.199488 0.029530 0.016909 0.032503 -0.135036 0.086665 0.117298 -0.018865 0.010431 -0.015994 0.156920 0.071643 -0.215072 0.027325 -0.140194 -0.076376 -0.039946 -0.016901 -0.038864 0.215538 0.033524 0.202844 0.017248 -0.018878 -0.061786 -0.065552 -0.000547 0.074019 0.152484 0.024043 0.089238 -0.177830 0.137144 -0.127970 -0.140908 0.157313 0.022946 -0.094388 -0.018493 -0.211057 0.042185 0.167168 0.127027 -0.152651 0.130200 0.039872 -0.123462 -0.049357 0.022706 -0.094464 0.135027 0.093978 0.053993 -0.252194 -0.131980 -0.068594 0.015114 -0.057494 0.068392 0.175641 -0.102276 -0.081465 0.123038 0.020331 -0.041635 0.034457 -0.004432 0.006390 -0.068332 0.019212 0.038023 0.035021 0.001552 0.119639 0.060137 0.157577 0.046846 0.043742 0.002840 -0.062983 -0.135715 -0.072085 -0.158076 -0.089408 0.206905 -0.009553 -0.059324 -0.027337 -0.014568 0.146324 0.107907 0.046687 -0.095148 -0.156114 0.156384 -0.093887 -0.162230 0.124486 0.058876 -0.251966 -0.054463 -0.125290 0.001486 -0.030663 -0.052497 0.159520 0.118332 0.030743 -0.113669 -0.037167 0.047061 0.005466 -0.020217 -0.076352 0.036461 -0.074468 0.154270 -0.194448 -0.074700 -0.047872 -0.092961 0.106554 -0.225269 -0.101561 0.043740 0.023345 0.081932
26 -0.103754 -0.193895 0.057673 -0.003586 0.042280 -0.097143 0.120647 0.006189 -0.119534 0.033693 -0.064329 0.106844 0.094933 -0.220766 -0.074998 -0.112293 -0.054385 0.015978 -0.048879 0.009122 0.203867 0.079686 0.258925 0.015977 -0.142138 -0.062118 -0.084419 0.020061 0.046196 0.155036 -0.010589 0.173040 -0.151133 0.130896 -0.188292 -0.133493 0.137359 0.007086 -0.078510 -0.078509 -0.293998 0.083235 0.131203 0.080273 -0.100464 0.130754 -0.028002 -0.130705 -0.119739 -0.019964 -0.054344 0.221831 0.076951 0.028156 -0.253331 -0.101956 -0.110669 -0.035823 -0.094078 0.147478 0.142883 -0.087187 -0.173969 0.126663 0.085416 -0.170341 0.053929 -0.001356 -0.033547 -0.000103 0.100808 0.034750 0.099658 0.010244 -0.025110 -0.021448 0.126154 0.100470 0.043592 0.130751 -0.031473 -0.234845 -0.072315 -0.272665 -0.050251 0.348671 -0.172491 -0.022752 -0.129570 -0.028608 0.130942 0.188001 0.061189 -0.130596 -0.050810 0.189432 -0.122148 -0.042842 0.107656 -0.084714 -0.311275 -0.032829 -0.130648 -0.032265 0.088979 -0.006100 0.237036 0.151232 0.043379 -0.082965 -0.023065 -0.057185 -0.011781 -0.038229 0.000137 -0.012569 -0.099944 0.159890 -0.193216 -0.036078 -0.089919 -0.138203 0.011181 -0.133483 0.026296 0.136301 -0.050842 0.042904
31 -0.082265 -0.188786 0.042587 0.009895 0.035416 -0.115839 0.090757 0.068195 -0.058425 0.023016 -0.027513 0.143977 0.077872 -0.214590 -0.011906 -0.131449 -0.070277 -0.015275 -0.023005 -0.017449 0.201022 0.049122 0.210802 0.016999 -0.063103 -0.057210 -0.067713 0.013608 0.062367 0.151013 0.009034 0.120750 -0.170202 0.138483 -0.143840 -0.130212 0.139995 0.017571 -0.077329 -0.038999 -0.231702 0.061047 0.152485 0.105123 -0.127790 0.124340 0.007649 -0.129169 -0.078278 0.008219 -0.078543 0.161158 0.084311 0.044554 -0.244470 -0.119247 -0.082719 -0.003195 -0.069323 0.089016 0.157301 -0.094729 -0.118319 0.111642 0.044443 -0.088529 0.036681 -0.007170 -0.009047 -0.039988 0.051828 0.031520 0.064461 0.005548 0.063580 0.027464 0.150776 0.067314 0.046887 0.054114 -0.048184 -0.171830 -0.075045 -0.200579 -0.074020 0.255225 -0.069647 -0.050400 -0.064304 -0.025172 0.129648 0.138844 0.051090 -0.108800 -0.123581 0.167124 -0.108686 -0.112007 0.116328 0.005979 -0.272279 -0.044686 -0.119458 -0.019179 0.012102 -0.037256 0.182965 0.130427 0.031005 -0.104680 -0.033004 -0.000071 -0.005108 -0.033727 -0.042220 0.022383 -0.089635 0.157465 -0.197500 -0.052543 -0.065082 -0.112309 0.063593 -0.185212 -0.052414 0.078288 -0.004676 0.063095
25 -0.102973 -0.191426 0.048172 -0.002748 0.034348 -0.098010 0.109409 0.013764 -0.096940 0.030794 -0.058126 0.108312 0.087714 -0.209820 -0.062098 -0.117526 -0.054253 0.008210 -0.040508 0.007339 0.200577 0.070889 0.245481 0.017993 -0.124208 -0.064222 -0.076115 0.016233 0.043766 0.148590 -0.005949 0.158985 -0.149618 0.124535 -0.180269 -0.124823 0.129064 0.012855 -0.078643 -0.072395 -0.278777 0.083533 0.129625 0.077934 -0.097590 0.129125 -0.016319 -0.120857 -0.103172 -0.018777 -0.062036 0.208938 0.079001 0.034409 -0.250628 -0.101119 -0.098846 -0.034629 -0.084992 0.140256 0.137631 -0.081268 -0.157821 0.119244 0.070603 -0.155152 0.048281 0.003022 -0.032677 -0.005712 0.090284 0.030040 0.095074 0.013707 -0.014933 -0.015769 0.122367 0.093859 0.045970 0.113192 -0.030856 -0.220197 -0.071684 -0.258566 -0.055008 0.318377 -0.150351 -0.029808 -0.118759 -0.031104 0.125698 0.173532 0.060130 -0.128647 -0.061314 0.182998 -0.113728 -0.054940 0.103221 -0.064862 -0.299183 -0.031741 -0.129178 -0.028394 0.075949 -0.014899 0.221859 0.144520 0.041306 -0.088007 -0.023192 -0.043480 -0.007732 -0.039630 -0.014200 -0.008343 -0.090472 0.153526 -0.188410 -0.035399 -0.081283 -0.122701 0.019570 -0.136247 0.012822 0.125610 -0.044967 0.047107
29 -0.082412 -0.191372 0.033235 0.007042 0.038667 -0.120946 0.086548 0.082281 -0.039758 0.019357 -0.023888 0.147958 0.069196 -0.211647 0.003286 -0.133263 -0.070464 -0.028068 -0.018476 -0.024240 0.205155 0.044596 0.202621 0.012704 -0.053596 -0.062069 -0.067840 0.004767 0.068233 0.151978 0.020521 0.104789 -0.165474 0.134190 -0.141028 -0.133476 0.147547 0.023599 -0.081079 -0.029002 -0.216545 0.055062 0.152540 0.109154 -0.133092 0.129455 0.018161 -0.123631 -0.067763 0.012209 -0.080392 0.146450 0.083646 0.050949 -0.249064 -0.116679 -0.072959 0.008991 -0.059728 0.084680 0.158304 -0.098754 -0.104894 0.116618 0.033532 -0.071371 0.034460 -0.009119 0.003266 -0.047151 0.036897 0.033978 0.050117 0.006534 0.082085 0.041045 0.148860 0.060340 0.042419 0.031596 -0.058301 -0.151256 -0.069351 -0.183586 -0.079552 0.232060 -0.040938 -0.055090 -0.048334 -0.022522 0.137435 0.119041 0.045335 -0.100422 -0.125535 0.162282 -0.103988 -0.123834 0.117683 0.018408 -0.258707 -0.043587 -0.119978 -0.007728 0.000040 -0.042757 0.167737 0.117174 0.026977 -0.105954 -0.027940 0.019024 -0.001958 -0.026469 -0.056945 0.020777 -0.080721 0.144056 -0.182225 -0.060320 -0.055694 -0.102855 0.075583 -0.189618 -0.063784 0.063749 0.006585 0.063630
11 -0.058923 -0.216320 0.013102 0.032625 0.033277 -0.158405 0.072994 0.187665 0.049079 -0.002090 0.013093 0.199646 0.056286 -0.222897 0.095727 -0.163086 -0.088144 -0.083462 -0.008105 -0.067542 0.240694 0.007966 0.186655 0.023932 0.050260 -0.081064 -0.076202 -0.017051 0.082531 0.164942 0.053381 0.052401 -0.196943 0.136308 -0.110121 -0.158689 0.177067 0.038967 -0.112218 0.015508 -0.177309 0.032085 0.204038 0.157644 -0.201214 0.147775 0.080408 -0.121989 -0.013960 0.060809 -0.111632 0.109537 0.106396 0.072443 -0.262888 -0.160646 -0.050643 0.049048 -0.036057 0.027546 0.204975 -0.127505 -0.030361 0.134463 -0.014545 0.028311 0.021580 -0.010018 0.033678 -0.125779 -0.019356 0.038602 -0.004611 -0.006408 0.216734 0.104709 0.178082 0.014878 0.035989 -0.076690 -0.086199 -0.071092 -0.071993 -0.087068 -0.126124 0.128541 0.084823 -0.080809 0.034293 -0.006562 0.161453 0.064973 0.048165 -0.065742 -0.216866 0.147464 -0.078709 -0.242114 0.149697 0.135876 -0.223187 -0.058555 -0.127613 0.016248 -0.099500 -0.086737 0.131703 0.101766 0.028138 -0.137311 -0.043612 0.109978 0.006956 -0.018871 -0.116921 0.068619 -0.071491 0.152553 -0.204737 -0.108876 -0.025728 -0.079387 0.176534 -0.295489 -0.184586 -0.010472 0.068547 0.109083
5 -0.055188 -0.210978 0.008231 0.031070 0.034329 -0.150708 0.078966 0.168263 0.042332 0.000381 0.014211 0.193920 0.054598 -0.217606 0.083835 -0.154910 -0.085672 -0.077415 -0.013215 -0.056450 0.232608 0.014111 0.181208 0.024744 0.042161 -0.080393 -0.073394 -0.020347 0.078939 0.162678 0.045974 0.055334 -0.194005 0.138408 -0.112209 -0.158644 0.167443 0.036422 -0.110969 0.007966 -0.177455 0.032935 0.191709 0.147686 -0.192757 0.142636 0.072152 -0.124672 -0.017472 0.051944 -0.107149 0.115322 0.105563 0.061982 -0.252099 -0.152640 -0.050655 0.040697 -0.029444 0.027811 0.195704 -0.122814 -0.037641 0.130234 -0.008501 0.016932 0.029339 -0.011435 0.029066 -0.114217 -0.012153 0.037015 0.001707 -0.005732 0.196320 0.092194 0.167734 0.018506 0.034658 -0.066112 -0.086077 -0.078715 -0.071477 -0.093022 -0.118130 0.133136 0.068102 -0.073449 0.024718 -0.009057 0.160451 0.071917 0.049074 -0.066345 -0.206698 0.150712 -0.083647 -0.228200 0.150282 0.122253 -0.227652 -0.059835 -0.124212 0.008924 -0.091331 -0.083759 0.132936 0.105355 0.023958 -0.130495 -0.044500 0.095459 0.010155 -0.023104 -0.108015 0.069348 -0.065879 0.148481 -0.198340 -0.100673 -0.029470 -0.076796 0.162380 -0.280633 -0.171115 0.002307 0.060327 0.104376
17 -0.044107 -0.211197 -0.000017 0.042199 0.022492 -0.161048 0.072773 0.205808 0.075568 0.001525 0.026634 0.209138 0.052033 -0.214107 0.109702 -0.153872 -0.086885 -0.098418 -0.009991 -0.069648 0.235625 -0.009157 0.174484 0.021031 0.084562 -0.083373 -0.073744 -0.027881 0.084428 0.168635 0.062048 0.034412 -0.194243 0.131153 -0.102838 -0.163364 0.171986 0.041430 -0.119600 0.019879 -0.163550 0.022750 0.201357 0.160576 -0.211500 0.143154 0.094653 -0.118569 0.005733 0.073393 -0.117824 0.096110 0.106012 0.066752 -0.249632 -0.161113 -0.044912 0.058690 -0.015031 0.006410 0.209997 -0.127701 -0.012108 0.128077 -0.022884 0.053548 0.018781 -0.010513 0.038307 -0.132101 -0.034508 0.036281 -0.016246 -0.006472 0.241013 0.120102 0.174416 0.004266 0.038697 -0.102715 -0.094477 -0.043561 -0.063383 -0.050291 -0.130995 0.091023 0.112481 -0.087659 0.054312 -0.005501 0.158778 0.048936 0.047688 -0.045476 -0.231045 0.140421 -0.064556 -0.259247 0.158190 0.157678 -0.203872 -0.063908 -0.122712 0.020890 -0.120330 -0.096704 0.111987 0.093316 0.024760 -0.130601 -0.045294 0.126350 0.014750 -0.016399 -0.124267 0.080759 -0.064335 0.146787 -0.203802 -0.118097 -0.016614 -0.061326 0.194343 -0.305227 -0.211032 -0.026283 0.084061 0.114557
21 -0.098061 -0.191571 0.045771 -0.000818 0.034929 -0.108510 0.101687 0.045053 -0.074491 0.030576 -0.043011 0.132593 0.082720 -0.221927 -0.034241 -0.125374 -0.066520 -0.004408 -0.031379 -0.007634 0.208367 0.061814 0.231994 0.016706 -0.092696 -0.061340 -0.071043 0.012607 0.057513 0.151527 0.004822 0.138890 -0.164320 0.138026 -0.163873 -0.135313 0.138356 0.018964 -0.077786 -0.049060 -0.260689 0.074270 0.144811 0.095862 -0.118633 0.128217 -0.000460 -0.128650 -0.087774 -0.006615 -0.067172 0.184977 0.086406 0.038738 -0.252326 -0.111515 -0.094391 -0.020169 -0.076850 0.114824 0.148737 -0.089290 -0.136862 0.120502 0.065656 -0.119087 0.045604 -0.007164 -0.017511 -0.027682 0.075309 0.027935 0.081259 0.009951 0.031176 0.008969 0.138483 0.078495 0.045112 0.083780 -0.044247 -0.194578 -0.075771 -0.235990 -0.071277 0.285058 -0.107573 -0.042369 -0.086569 -0.026444 0.138297 0.158514 0.050842 -0.114678 -0.098991 0.176212 -0.114242 -0.085556 0.113923 -0.026386 -0.287104 -0.043208 -0.125707 -0.018985 0.043140 -0.027411 0.200199 0.135222 0.031201 -0.104119 -0.022202 -0.014762 -0.007139 -0.034187 -0.032634 0.014260 -0.095726 0.162811 -0.199890 -0.040594 -0.073349 -0.122443 0.048369 -0.169758 -0.022850 0.100488 -0.015276 0.055343
10 -0.082401 -0.193287 0.035339 0.010480 0.039120 -0.113497 0.093374 0.080393 -0.043989 0.016506 -0.025620 0.144989 0.070641 -0.209603 -0.005594 -0.127012 -0.066442 -0.018852 -0.026856 -0.020499 0.206347 0.047840 0.213075 0.018345 -0.057654 -0.061612 -0.068451 0.004620 0.064111 0.149165 0.011369 0.108067 -0.167656 0.139936 -0.147068 -0.136945 0.147876 0.017103 -0.087441 -0.034111 -0.229359 0.054369 0.159816 0.114519 -0.130268 0.130040 0.020601 -0.126681 -0.067076 0.006604 -0.077657 0.154977 0.089049 0.046508 -0.248172 -0.117571 -0.078678 -0.000531 -0.066150 0.089606 0.159082 -0.095868 -0.111184 0.118235 0.041659 -0.075829 0.037342 -0.008028 -0.005900 -0.049343 0.048005 0.031284 0.060530 0.004436 0.076420 0.035462 0.146505 0.060925 0.039167 0.039809 -0.056651 -0.163311 -0.071897 -0.186279 -0.081201 0.243437 -0.056629 -0.052337 -0.055857 -0.021431 0.139970 0.129445 0.050508 -0.101421 -0.125005 0.166767 -0.103883 -0.124432 0.119280 0.016742 -0.263489 -0.046941 -0.120131 -0.010501 0.002557 -0.042037 0.180508 0.128976 0.026084 -0.105249 -0.026842 0.008840 0.000717 -0.030222 -0.048418 0.023045 -0.082517 0.155548 -0.193529 -0.062655 -0.058852 -0.108034 0.074779 -0.188356 -0.057711 0.067070 0.002122 0.067993
15 -0.097330 -0.189051 0.050558 -0.001440 0.038250 -0.093494 0.106251 0.030124 -0.081506 0.026705 -0.045747 0.119868 0.080701 -0.207815 -0.043378 -0.116872 -0.064931 -0.000285 -0.040389 -0.007937 0.198927 0.064682 0.230570 0.016082 -0.105759 -0.058189 -0.074866 0.012541 0.050621 0.141669 -0.005433 0.146994 -0.150086 0.127253 -0.161188 -0.126934 0.129925 0.011432 -0.073007 -0.056157 -0.262054 0.073438 0.138300 0.089054 -0.101473 0.125709 -0.010853 -0.126220 -0.096207 -0.010984 -0.063434 0.189281 0.077491 0.036425 -0.242677 -0.107898 -0.101899 -0.026452 -0.072650 0.120871 0.146099 -0.082173 -0.142341 0.110566 0.069479 -0.126979 0.048015 -0.002791 -0.018338 -0.013098 0.082837 0.027783 0.085713 0.006286 0.007481 -0.002063 0.134707 0.083355 0.036532 0.090245 -0.035283 -0.195559 -0.070435 -0.237823 -0.064820 0.288564 -0.123651 -0.036524 -0.099172 -0.020614 0.129783 0.162383 0.056022 -0.116354 -0.083018 0.177278 -0.105881 -0.065787 0.107078 -0.038462 -0.276397 -0.036332 -0.123275 -0.024647 0.053873 -0.026247 0.203024 0.137356 0.033796 -0.095743 -0.021448 -0.029421 -0.011445 -0.041491 -0.021748 0.006659 -0.089344 0.160738 -0.196529 -0.034025 -0.072243 -0.122333 0.039644 -0.145348 -0.013540 0.106563 -0.024509 0.054170
23 -0.093263 -0.198341 0.040865 0.007740 0.037678 -0.109195 0.105443 0.059473 -0.069611 0.024910 -0.042842 0.138545 0.083564 -0.226074 -0.032180 -0.126769 -0.067736 -0.006972 -0.033458 -0.007916 0.210424 0.058580 0.235062 0.018539 -0.086565 -0.065890 -0.081521 0.006858 0.054931 0.160439 0.004952 0.141728 -0.169928 0.137430 -0.167764 -0.141560 0.148005 0.013845 -0.089742 -0.051267 -0.264976 0.071845 0.156578 0.105210 -0.123498 0.130761 0.001998 -0.129596 -0.092319 -0.001645 -0.072392 0.187831 0.088845 0.039421 -0.257394 -0.121970 -0.098133 -0.014947 -0.074212 0.108826 0.159799 -0.097089 -0.134432 0.125402 0.062941 -0.117402 0.047611 0.001017 -0.014716 -0.028898 0.070324 0.035625 0.079884 0.008310 0.035930 0.014217 0.147891 0.081533 0.047223 0.079123 -0.041870 -0.196263 -0.071937 -0.228123 -0.074122 0.291939 -0.102880 -0.040199 -0.090037 -0.025083 0.140667 0.158249 0.052582 -0.116509 -0.107549 0.179546 -0.110270 -0.100309 0.117697 -0.018348 -0.294043 -0.043410 -0.126712 -0.025525 0.033965 -0.035182 0.202716 0.139512 0.037914 -0.102679 -0.030419 -0.013785 -0.008138 -0.039788 -0.035438 0.011716 -0.097834 0.167343 -0.206547 -0.050834 -0.072837 -0.120124 0.055166 -0.181788 -0.033082 0.094936 -0.015150 0.063492
19 -0.083326 -0.189486 0.042918 0.005116 0.035220 -0.104061 0.096252 0.054432 -0.057627 0.023425 -0.038416 0.134431 0.072890 -0.206944 -0.022682 -0.120005 -0.067261 -0.014627 -0.028790 -0.008574 0.197532 0.049966 0.217020 0.015745 -0.075803 -0.057162 -0.071449 0.007441 0.055997 0.144257 0.006674 0.126315 -0.156379 0.127350 -0.151933 -0.130345 0.132686 0.019456 -0.077953 -0.041846 -0.239371 0.063894 0.145941 0.096750 -0.116845 0.124808 0.008934 -0.126873 -0.080121 0.001346 -0.071711 0.168719 0.078531 0.037444 -0.235170 -0.107774 -0.090128 -0.008888 -0.061975 0.099450 0.147749 -0.092006 -0.119234 0.118522 0.052466 -0.104615 0.045449 -0.004999 -0.013316 -0.034673 0.062523 0.030570 0.067959 0.008302 0.039821 0.013871 0.137962 0.073493 0.036888 0.060548 -0.045651 -0.172181 -0.068581 -0.208582 -0.070756 0.257482 -0.081861 -0.037860 -0.077304 -0.022518 0.131055 0.143568 0.053667 -0.102721 -0.101469 0.168552 -0.102724 -0.093903 0.110734 -0.015790 -0.260584 -0.037855 -0.122303 -0.021037 0.025952 -0.031238 0.181404 0.125975 0.029692 -0.097880 -0.026537 -0.006071 -0.004008 -0.034893 -0.030179 0.016439 -0.078713 0.149661 -0.185840 -0.043191 -0.064510 -0.108584 0.052138 -0.160763 -0.036968 0.082366 -0.013994 0.053517
13 -0.061134 -0.191113 0.025669 0.015973 0.031014 -0.133263 0.075565 0.129046 0.005156 0.011121 -0.006722 0.163529 0.064059 -0.211949 0.050381 -0.141521 -0.079081 -0.053470 -0.013540 -0.046622 0.215270 0.026027 0.181148 0.018800 -0.000601 -0.062986 -0.062749 -0.001007 0.074279 0.150892 0.030587 0.075963 -0.178655 0.129737 -0.115510 -0.143021 0.155554 0.031128 -0.090889 -0.003627 -0.183885 0.037419 0.171401 0.133646 -0.159240 0.131341 0.047428 -0.116789 -0.038706 0.037281 -0.095504 0.119041 0.095048 0.063799 -0.244691 -0.136083 -0.063620 0.024823 -0.042640 0.045584 0.176493 -0.105856 -0.063261 0.112611 0.013927 -0.017215 0.027174 -0.011582 0.019192 -0.089091 0.004850 0.032991 0.024004 -0.004298 0.148314 0.066648 0.155940 0.033602 0.034649 -0.027104 -0.066915 -0.111104 -0.070869 -0.126983 -0.101996 0.169347 0.025573 -0.066019 -0.005639 -0.007876 0.146497 0.087386 0.039778 -0.086318 -0.171550 0.145330 -0.088123 -0.183053 0.125585 0.079195 -0.226096 -0.052657 -0.117054 0.005096 -0.053870 -0.067662 0.143874 0.105792 0.023175 -0.122538 -0.032760 0.061905 0.004587 -0.016510 -0.087810 0.045333 -0.075742 0.149058 -0.189184 -0.082649 -0.036975 -0.084182 0.126739 -0.234189 -0.125029 0.027019 0.043497 0.089715
16 -0.091399 -0.192460 0.045400 0.005033 0.036396 -0.107090 0.104034 0.054621 -0.066964 0.025822 -0.041863 0.135734 0.076882 -0.212900 -0.022674 -0.127375 -0.070929 -0.013895 -0.036939 -0.017516 0.205308 0.059858 0.230824 0.014775 -0.082040 -0.060384 -0.072463 0.009921 0.056435 0.147469 0.001728 0.136234 -0.166597 0.131647 -0.154706 -0.133639 0.146237 0.012969 -0.084675 -0.050608 -0.255860 0.071556 0.154028 0.103360 -0.119552 0.126442 0.006822 -0.125840 -0.089106 0.002925 -0.068957 0.180686 0.085021 0.044920 -0.248527 -0.115941 -0.094601 -0.012668 -0.070543 0.103452 0.156864 -0.096029 -0.132039 0.115821 0.059868 -0.110462 0.044612 0.000035 -0.014656 -0.035952 0.069622 0.029467 0.073887 0.004585 0.044026 0.013641 0.146189 0.073306 0.038893 0.072869 -0.040754 -0.188149 -0.072936 -0.221885 -0.072429 0.280433 -0.093895 -0.037849 -0.079720 -0.020191 0.133747 0.152219 0.048609 -0.111466 -0.104083 0.177767 -0.104487 -0.098142 0.112505 -0.020551 -0.276519 -0.039928 -0.121519 -0.022782 0.028393 -0.034816 0.193988 0.134076 0.034732 -0.101168 -0.026067 -0.005441 -0.010559 -0.032862 -0.033483 0.016420 -0.093377 0.164943 -0.200045 -0.049461 -0.070927 -0.116964 0.056158 -0.175152 -0.032534 0.093660 -0.010655 0.066658
18 -0.058174 -0.194386 0.016295 0.021533 0.033500 -0.143753 0.065356 0.152640 0.020945 0.009576 0.003126 0.178186 0.063678 -0.211178 0.065646 -0.150466 -0.080468 -0.058243 -0.009429 -0.045071 0.219283 0.019619 0.183925 0.017273 0.025234 -0.059325 -0.064317 -0.006156 0.081937 0.156994 0.039678 0.065081 -0.184242 0.139545 -0.107512 -0.147118 0.155608 0.030021 -0.094011 0.011507 -0.176149 0.033418 0.174071 0.138792 -0.172348 0.132980 0.051122 -0.119319 -0.026585 0.039717 -0.101994 0.100527 0.099779 0.069565 -0.247859 -0.136812 -0.053273 0.033686 -0.043033 0.035602 0.183139 -0.114870 -0.049625 0.117624 0.004152 0.004822 0.029778 -0.012918 0.026764 -0.090850 -0.008673 0.036615 0.018288 -0.006716 0.174493 0.086622 0.168453 0.031888 0.043009 -0.044747 -0.077662 -0.094369 -0.069895 -0.114490 -0.108129 0.155868 0.051637 -0.072998 0.008676 -0.008740 0.147615 0.075946 0.045437 -0.084037 -0.196179 0.145903 -0.090526 -0.198948 0.137604 0.099469 -0.229563 -0.055956 -0.118942 0.011306 -0.069484 -0.071894 0.131731 0.103359 0.022138 -0.130163 -0.044957 0.075703 0.008038 -0.019096 -0.097935 0.053675 -0.070657 0.144604 -0.192487 -0.092320 -0.034324 -0.088164 0.138629 -0.257256 -0.144028 0.008018 0.048463 0.090587
22 -0.068843 -0.193814 0.027778 0.014628 0.032869 -0.130071 0.078126 0.112296 -0.015289 0.011743 -0.012780 0.160312 0.067942 -0.210935 0.032767 -0.139280 -0.075967 -0.042345 -0.010506 -0.032467 0.209777 0.033492 0.195609 0.016713 -0.019888 -0.057707 -0.066813 -0.003362 0.073204 0.153284 0.026692 0.083443 -0.177743 0.134890 -0.125018 -0.140905 0.148017 0.024042 -0.089316 -0.014344 -0.195729 0.039306 0.162375 0.127607 -0.148732 0.130856 0.032334 -0.118246 -0.044678 0.023449 -0.091264 0.125203 0.086885 0.055698 -0.240130 -0.128718 -0.064013 0.022121 -0.050310 0.058392 0.169389 -0.100188 -0.076216 0.119235 0.019289 -0.034144 0.029333 -0.006796 0.013515 -0.067796 0.017786 0.036146 0.035786 -0.001227 0.125235 0.059734 0.150972 0.046698 0.042970 -0.003193 -0.066081 -0.126637 -0.068169 -0.150831 -0.092121 0.190367 0.000883 -0.063746 -0.018340 -0.015758 0.141691 0.100491 0.044626 -0.093932 -0.157975 0.151607 -0.093714 -0.158391 0.127122 0.055702 -0.240724 -0.050027 -0.115476 0.001418 -0.031690 -0.053508 0.152741 0.115694 0.024209 -0.115132 -0.032401 0.045483 0.006942 -0.018684 -0.075216 0.039041 -0.077477 0.148107 -0.191634 -0.073621 -0.043215 -0.095477 0.106863 -0.219001 -0.101269 0.039020 0.030309 0.079510
27 -0.102167 -0.195573 0.050494 -0.005496 0.041467 -0.091084 0.115945 0.015693 -0.110033 0.034672 -0.061291 0.108818 0.085370 -0.209073 -0.069196 -0.115129 -0.053547 0.011732 -0.044374 -0.001159 0.201207 0.076975 0.250383 0.017192 -0.131971 -0.065180 -0.080512 0.021388 0.044539 0.150553 -0.008796 0.160739 -0.154917 0.128563 -0.175460 -0.129092 0.132059 0.008253 -0.078507 -0.075948 -0.288980 0.085684 0.135710 0.083342 -0.095302 0.129111 -0.014587 -0.130763 -0.112147 -0.017400 -0.053548 0.214734 0.073664 0.035868 -0.251734 -0.105454 -0.109197 -0.030967 -0.080411 0.143056 0.137996 -0.078624 -0.171342 0.118936 0.081594 -0.160710 0.047486 0.003199 -0.029290 0.000194 0.094028 0.035914 0.098732 0.008906 -0.024006 -0.019268 0.133657 0.094318 0.041716 0.126215 -0.033941 -0.225701 -0.072416 -0.262342 -0.058357 0.332679 -0.155322 -0.027906 -0.128778 -0.025801 0.123577 0.176057 0.056773 -0.125982 -0.060899 0.187708 -0.114024 -0.048657 0.106316 -0.076175 -0.305807 -0.031764 -0.121272 -0.037031 0.080355 -0.010761 0.226364 0.141367 0.034376 -0.083174 -0.016439 -0.050863 -0.014591 -0.042698 -0.002191 -0.012367 -0.097591 0.161265 -0.197148 -0.029556 -0.088398 -0.126677 0.019292 -0.133114 0.015943 0.130806 -0.042480 0.046225
12 -0.072750 -0.199241 0.026095 0.016364 0.032391 -0.133681 0.077650 0.121274 -0.005826 0.013116 -0.004857 0.166810 0.062935 -0.208756 0.039626 -0.137284 -0.075726 -0.046918 -0.012194 -0.043728 0.212845 0.031880 0.193349 0.014898 -0.009687 -0.068747 -0.066117 -0.002112 0.071813 0.153404 0.033685 0.082475 -0.179770 0.134189 -0.121927 -0.138675 0.151051 0.030127 -0.092273 -0.007227 -0.196260 0.041695 0.172469 0.126641 -0.160060 0.132850 0.044561 -0.121431 -0.045189 0.031621 -0.092555 0.129664 0.091034 0.054472 -0.248890 -0.136549 -0.063574 0.024868 -0.048127 0.058982 0.174585 -0.104195 -0.073706 0.121339 0.011926 -0.027222 0.033835 -0.009309 0.016684 -0.075046 0.017718 0.037196 0.029124 0.002309 0.134744 0.063802 0.158871 0.043926 0.040563 -0.009834 -0.068322 -0.115303 -0.072603 -0.138278 -0.097902 0.186536 0.008106 -0.063057 -0.016200 -0.016642 0.142189 0.098790 0.043806 -0.085611 -0.160533 0.148976 -0.087981 -0.173842 0.130953 0.067243 -0.241698 -0.053673 -0.118496 0.001603 -0.041667 -0.063427 0.151906 0.111286 0.029858 -0.119638 -0.039254 0.054245 0.004261 -0.019109 -0.077869 0.045187 -0.075616 0.150050 -0.195498 -0.082564 -0.044530 -0.092798 0.118826 -0.227498 -0.116892 0.033286 0.030146 0.083167
